{"layerCount": 4, "neuronDistribution": [2, 10, 4, 1], "weights": [[[0.8559018265020039, 0.19885510213373336], [0.15304474567556545, 0.2993035157376261], [0.4062116724437217, 0.29214984797746635], [0.1950923048929804, 0.5511490931847592], [0.8778611219596921, 0.8004043356391759], [0.6623102601296316, 0.08305844858350388], [0.04130981603180307, 0.13583524061687807], [0.2708947724480541, -0.2681777914138951], [0.9216967812385852, -0.010792861521938993], [0.061262635468304294, 0.12603582821574064]], [[0.42937715870185195, 0.822096728018041, 0.8606737134235856, 0.08341149757374659, 0.7157021215574333, 0.04202773313744034, 0.31774430341505655, 0.2944594215681659, 0.38207228722106534, 0.5074839913284067], [0.12949248031685456, 0.6376740145126887, -0.06360568659496739, 0.3533527252466285, -0.027517905319395027, 0.6454819592061637, -0.03097875900930392, 0.37860259845393746, 0.7066132282022153, 0.10446492372142342], [0.31768320092431546, 0.08334108558011775, 0.20839196800679105, 0.6323468619498863, 0.3560499748421327, 0.06829527705764335, 0.7987423889627825, 0.7734059147841384, 0.17301790151687244, 0.8026058420485488], [0.56759509273807, 0.06530416934457878, 0.8455757129546176, 0.0882143028199852, 0.16377126867816041, -0.03223385685902706, 0.5170231454321835, 0.9296032708070087, 0.14168984295320977, -0.035201734895539655]], [[-0.0713082649299706, 0.21916935530874967, 0.20541380586536565, 0.3667288214522875]]], "biases": [[0.29898764303630726, 0.7996010136787227, 0.701428853267765, 0.5982646590994887, 0.40595849482590685, 0.7379953149408294, 0.9383563376600008, 0.7169660323117772, 0.4530929771568221, 0.7610538032169847], [0.6585484608642213, 0.058263976962703266, 0.20536914802355152, 0.4972092095605785], [0.9518002635768092]], "actvFns": ["linear", "linear", "linear", "linear"], "nodeDeltas": [[-0.05206553114745611, -0.02346346460836998, -0.053297674790334315, -0.044878346782441736, -0.014617195994011635, -0.02701088407685475, -0.062253121645026666, -0.10785895901033156, -0.041304318307260585, -0.026623787785422067], [0.013691288014290025, -0.042080827101672595, -0.039439742096882044, -0.07041245390804772], [-0.19200141845739438]]}