{"layerCount": 4, "neuronDistribution": [2, 10, 4, 1], "weights": [[[0.13235591531308183, -0.030235149438358158], [0.17363984931217677, -0.30760793721662955], [0.1263516099319884, 0.19980418217865], [0.6964724036199119, 0.05568809315818666], [0.5129566184163559, 0.11733196610863597], [0.023290563606268303, -0.4988828328074203], [0.41385948209065765, 0.07672504883830951], [0.1766897006903692, 0.1150944925978023], [-0.21475213170828203, 0.5354983892531947], [-0.16320018811521253, 0.4072542560955714]], [[0.5372811915483336, 0.21543286884480423, 0.6292162939345408, 0.6419422910276562, -0.2891085584948762, -0.08764305720122413, 0.21407348836057583, 0.3022894374159473, 0.13725642151692008, -0.006684130242146484], [0.3283155469438076, 0.5319403229563274, -0.1694736826697126, -0.0013768031933678532, 0.5780308088440892, 0.5454341515874762, 0.24537911435852586, 0.22040413298088388, -0.014786543049894027, 0.4097413148647371], [0.09253618400733894, 0.008872367214076745, 0.33129580186076585, 0.14014503364895864, 0.5869724911450338, 0.4981613822323856, 0.0166367386229747, 0.6334803706715919, 0.46133852646800616, 0.5064903089784993], [0.1607905468410475, 0.29958814801805295, 0.1651803183329475, 0.041085717644897726, 0.1729868505477541, 0.7023760500039423, 0.20647884021198074, 0.04495746395533519, 0.8392976018366762, 0.2793365433650786]], [[0.5745456003541172, 0.7599326427971033, 0.1384902467443966, 0.5892502502329852]]], "biases": [[0.5432701920168684, 0.03299483780280461, 0.6742213455268551, -0.025196237819015695, 0.10255669662040148, 0.7311158966378919, -0.026478106832503095, 0.6384044023165484, 0.49369663939388037, 0.6514374029366458], [0.7457764952845591, 0.6759214420106621, 0.3642007689269587, 0.529295453889416], [-0.08561350232672164]], "actvFns": ["linear", "linear", "linear", "linear"], "nodeDeltas": [[-0.08320771602009865, -0.08821010095376935, -0.0469859965699175, -0.05141773406094288, -0.05703992718066561, -0.10586123234648342, -0.054172485538024916, -0.056916502734889685, -0.07824826338233493, -0.06777568207580385], [-0.07180851857602807, -0.09497877498877771, -0.017308947192031965, -0.07364635202794186], [-0.12498314934753552]]}