{"layerCount": 4, "neuronDistribution": [2, 10, 4, 1], "weights": [[[0.0813267806702625, 0.31955866022806784], [0.02565353716179064, 0.09213712396740172], [0.14686429482670055, 0.06852118230863506], [0.04559734466260045, 0.7587790621276798], [0.5406125590548883, -0.2571575548235051], [0.217190797294513, 0.07199806986948855], [0.35719790313000466, 0.33469691862894146], [0.38043926165443304, 0.8338291477840032], [0.5775326899335783, -0.14708257432459315], [-0.11143324364357932, -0.23204625404180812]], [[-0.06283812474043331, 0.03945436701272474, 0.0034551836657403146, 0.133179691141322, 0.6177545895285945, 0.7024162052500481, 0.3904031994784752, -0.0543481173477737, -0.010514689385053377, 0.7126852381161011], [0.06663508809219836, 0.5275985874828585, 0.5592271186656209, 0.21197024561358482, 0.14586252743179684, -0.05892123876205783, 0.3836529538213158, -0.15939828961907332, 0.4363565364685122, 0.020876671000250802], [0.3939071033477649, 0.31945746474045567, -0.07993298611486493, 0.3418365796317071, 0.7675978957848877, 0.7233826773642704, 0.0556890225709223, 0.024457519784343695, 0.7531840134814185, 0.7963839963181897], [0.2331336701311356, 0.11027001136069928, 0.454055945814391, 0.41184137006231125, 0.5236812165345921, -0.09476320786197365, 0.5661316377201254, 0.659008162149675, -0.03914881308774104, 0.5561452124536036]], [[0.2760260167715454, 0.4490381458881689, 0.39678176648057156, 0.16309482028061897]]], "biases": [[0.2872152685941053, 0.751335412557807, 0.14766135406073547, 0.1501546633774265, 0.5109797644253355, 0.4539518255666516, 0.23152386018145862, 0.6927449272532542, 0.45432714115365525, 0.8215261809633233], [0.2906013278132021, 0.8203604312230316, 0.7362859063345742, 0.6091078360371844], [0.5032150704259268]], "actvFns": ["linear", "linear", "linear", "linear"], "nodeDeltas": [[-0.02890313944982381, -0.05483795498839148, -0.04112846406672341, -0.04676412466732869, -0.08745099353202679, -0.06132773844463176, -0.055106749704287236, -0.004275887665953996, -0.06782463845374309, -0.08560645753819655], [-0.038560750975376076, -0.06273049303308732, -0.055430292650603466, -0.022784297015812974], [-0.1396996972473472]]}